-0.186383
-0.109241
-0.132247
-0.075898
-0.574783
-0.268083
0.16553
0.0834549
0.523577
0.242375
0.102021
0.0467844
0.41816
0.191899
0.158461
0.0896364
-0.186178
-0.104558
0.150133
0.123128
0.189724
0.0743196
0.0381503
0.0134796
-0.201798
-0.060852
-0.154105
-0.0741169
0.598949
0.263835
0.0133962
-0.0414375
-0.191011
-0.054146
0.0088336
0.03803
0.442603
0.228716
-0.372831
-0.121643
0.0718909
0.0426755
0.0734418
0.0102685
-0.491549
-0.201558
-0.516584
-0.180516
-0.668386
-0.227816
0.312899
0.153013
0.481932
0.174852
0.300348
0.101438
0.297693
0.0552716
0.471233
0.193207
0.152509
0.102233
0.0213413
0.00870245
0.197184
0.0271272
-0.237277
-0.117455
-0.162993
0.00365625
-0.174232
-0.106579
0.498105
0.198653
-0.028097
-0.0143862
0.273868
0.170317
-0.254603
-0.0483587
0.36963
0.229771
-0.118738
-0.0987311
0.0708996
0.00858758
0.0521573
0.0576954
-0.346591
-0.235534
-0.269118
-0.123899
-0.609989
-0.303755
0.403109
0.158095
0.352153
0.180329
0.0809087
0.12341
0.13886
0.0336567
0.602164
0.264409
-0.160159
0.00044961
0.0897906
0.1115
-0.128859
-0.0362398
-0.108681
-0.0441716
-0.267849
-0.108312
-0.316075
-0.139836
0.753795
0.315512
0.0566081
0.0290663
0.0974617
0.0638974
-0.0695356
0.0182167
0.268563
0.169565
0.0370241
0.0110376
0.0954719
0.0914556
0.11069
0.0243875
-0.860277
-0.351824
0.210392
0.10382
-0.804192
-0.297424
0.389764
0.153873
0.345841
0.110255
0.0754834
0.0316451
0.0105141
0.0182935
0.541229
0.226423
-0.208787
-0.0452134
0.139613
0.0425561
0.126421
-0.0336671
-0.331193
-0.157961
-0.0732317
0.00615392
-0.254368
-0.115206
0.503394
0.255259
-0.139155
-0.0536233
0.413658
0.204285
-0.174524
-0.064765
0.13536
0.0970463
0.430828
0.114954
0.0950087
0.000486563
0.246396
0.0911299
-0.977532
-0.410666
0.0720498
-0.0204887
-0.382161
-0.175902
0.339974
0.160256
0.436337
0.207365
-0.152868
-0.0440453
-0.400816
-0.141578
0.771064
0.374157
-0.357148
-0.104706
0.0716412
-0.000697881
-0.16572
-0.0523527
0.104357
-0.0480749
-0.147681
-0.0226344
-0.107287
-0.083923
0.598642
0.189447
-0.177025
-0.0972181
0.142914
0.0667537
-0.0730441
-0.0160073
0.571339
0.264581
-0.0286633
0.0114517
0.00574449
0.045077
0.380762
0.188098
-1.04131
-0.539114
7.8192e-05
-0.016037
-0.193501
-0.0430124
0.376511
0.0809218
0.456689
0.205842
-0.138693
-0.0969106
-0.328586
-0.123824
0.68834
0.329081
-0.0658573
-0.00999898
0.284661
0.0508288
-0.0875875
-0.0718593
0.163764
0.00803309
0.167277
0.0477702
-0.0720624
0.0073804
0.475395
0.221234
-0.374091
-0.121056
-0.0594654
0.0323375
-0.473176
-0.128172
0.767295
0.30646
-0.199504
-0.0408974
0.0023894
0.0464127
0.442707
0.228728
-0.681577
-0.422557
-0.0504394
-0.0652318
-0.0459711
-0.00679866
0.323177
0.152699
0.522383
0.21447
-0.146818
-0.0737792
-0.045096
-0.0484401
0.739921
0.359286
-0.0568089
-0.00672864
0.0389862
-0.0264932
0.0988729
0.0573155
0.0855331
0.0389105
-0.402038
-0.145786
-0.57309
-0.162255
0.382255
0.210483
0.241064
0.0952172
-0.0816913
0.0183346
-0.260191
-0.124222
0.193897
0.130971
-0.0507527
0.00246714
0.00460305
0.0441934
0.474737
0.167407
-0.946506
-0.387095
-0.205054
-0.100752
-0.0224803
-0.0381178
0.0676407
0.0260997
0.388407
0.142164
-0.208106
-0.110069
0.0659817
0.0360565
0.825243
0.399993
-0.15708
0.0045076
-0.078298
0.00753873
-0.413702
-0.108572
0.315018
0.0960272
-0.201521
-0.0788933
-0.27763
-0.146595
0.586411
0.229716
0.059734
-0.0103763
0.151599
0.0959706
-0.168508
-0.0189646
0.39658
0.22025
0.188506
0.036933
0.0450634
0.0590374
0.193078
0.162629
-1.12613
-0.543048
-0.110558
-0.103123
0.143331
0.0775419
0.176151
0.0486149
0.465622
0.157561
-0.576853
-0.224081
-0.194553
-0.0315791
0.836959
0.350411
0.235876
0.135566
-0.101993
-0.0272198
-0.264029
-0.21288
0.434607
0.183745
-0.0866364
-0.0769694
0.102994
0.0437955
0.476215
0.189796
0.15426
0.0910287
0.0763851
0.0764821
0.00691605
0.0290603
0.169912
0.127672
0.1571
0.0360933
0.0153838
0.0134984
0.0635821
0.0140312
-0.933332
-0.461516
-0.20712
-0.110186
-0.184761
-0.0756977
0.579267
0.192005
0.195886
0.101439
-0.153352
-0.0981728
-0.364539
-0.167336
0.268445
0.101515
-0.20752
-0.0473829
0.3433
0.174613
-0.428724
-0.184731
0.482324
0.196788
-0.192714
-0.0797203
-0.190796
-0.026059
1.11264
0.430837
0.182579
0.0506642
-0.00968601
0.0261454
0.235892
0.0948889
0.178259
0.0662511
-0.101138
-0.00903507
0.0733684
0.00966868
0.13388
0.141214
-0.785391
-0.337602
-0.210686
-0.13323
0.0884614
0.06783
0.628345
0.286055
0.0251274
0.0341359
-0.134938
-0.0870025
-0.177579
-0.0588093
0.193075
0.0886393
-0.116577
-0.0738031
0.353179
0.188995
-0.675083
-0.289259
0.385156
0.143162
-0.340276
-0.0883715
-0.179066
-0.024515
0.575955
0.263002
0.407917
0.153052
-0.157863
0.034195
0.42058
0.171134
0.0452213
0.0638459
0.0257031
0.0603007
0.0338153
0.095873
0.316091
0.194866
-0.855579
-0.437696
-0.44565
-0.212316
0.210584
0.0700358
0.541264
0.180094
0.159252
0.0486604
0.37661
0.180203
-0.364015
-0.166854
0.139943
0.0409279
0.0250844
0.0451381
0.357102
0.103059
-0.719786
-0.292919
0.222966
0.0261333
-0.4105
-0.173155
-0.443156
-0.165773
0.879368
0.379169
0.181582
0.147937
-0.00165954
-0.00591345
0.0912425
0.0648703
0.331211
0.170825
0.134512
0.069003
0.0177115
0.0504613
0.535613
0.294004
-0.137723
-0.169531
-0.467255
-0.199533
0.0216197
-0.0511977
0.0773227
0.0653528
0.219627
0.0631707
0.350087
0.158647
-0.0339744
-0.023775
0.201217
0.120727
0.00930344
0.016925
0.0991476
0.0431788
-0.708162
-0.276303
0.251507
0.0939009
-0.0120063
-0.0179723
-0.80635
-0.236726
0.907217
0.345756
0.18739
0.138311
-0.219279
-0.0645356
-0.190538
0.0318291
0.417231
0.211235
0.12164
0.0669443
0.0975831
0.00522689
0.422921
0.150388
-0.149767
-0.149074
-0.470703
-0.259217
0.189664
-0.00263483
0.103679
0.0136426
0.199433
0.0820631
0.705638
0.322603
0.283752
0.0839677
0.136654
0.101936
-0.192481
-0.0178311
0.170441
0.0321045
-0.736344
-0.344773
0.329081
0.13593
0.0417542
-0.0371609
-0.660969
-0.289447
0.423607
0.204067
-0.136097
0.0309116
-0.00668686
-0.00700381
-0.152789
-0.029726
0.257333
0.205006
0.107683
-0.0154176
0.0359935
0.0507839
0.288191
0.102925
0.317287
0.0360058
-0.223997
-0.167452
-0.0492665
-0.0524395
-0.0140678
0.000544333
0.209555
0.121471
0.423763
0.163378
0.233554
0.0936236
-0.204537
-0.051274
-0.372387
-0.110856
-0.1099
-0.0456838
-0.567209
-0.258953
0.214258
0.051027
0.173363
0.0203387
-0.554851
-0.179398
0.492266
0.236268
0.234555
0.0660244
0.427107
0.120407
-0.0293847
0.0421296
0.408713
0.181872
0.028944
0.0325564
0.0522671
0.0793556
-0.104119
-0.0250801
-0.203807
-0.155552
-0.394578
-0.234155
0.160267
0.0424738
0.126527
0.0412969
0.134172
0.0534424
0.396186
0.135609
-0.108842
-0.0439713
-0.136846
-0.00809292
-0.282155
-0.0993931
0.16333
0.0708318
-0.0771135
0.0163233
-0.217498
-0.130895
0.238029
0.0835704
-0.367426
-0.165665
0.398483
0.154003
0.368941
0.153986
0.57145
0.191356
-0.130003
-0.0261446
0.215208
0.135935
-0.108889
-0.0141437
0.0758375
0.0477952
-0.0431382
0.0462059
-0.398115
-0.181267
-0.532136
-0.208542
0.146252
0.07014
0.457555
0.169811
-0.0643802
0.0124144
0.367908
0.121957
-0.000399807
0.0216167
-0.523744
-0.147323
-0.123224
-0.0432708
0.43155
0.129579
0.151465
0.0563581
-0.301561
-0.180415
0.129201
0.015607
-0.29379
-0.140738
0.524511
0.204186
0.525339
0.203001
0.0371381
0.0364617
0.155685
0.0657459
0.111278
0.0484047
0.0913572
-0.0158565
0.0860864
0.0819248
-0.0192677
0.00260866
-3.99857
-3.99878
-1.44136
-1.47572
3.72255
-1.79916
3.73881
-1.79077
